{
    "conv1.weight": [
        [
            [
                [
                    0.25201791524887085,
                    0.44850587844848633,
                    -0.03520091623067856,
                    0.3990735411643982,
                    -0.382973849773407
                ],
                [
                    -0.42881670594215393,
                    -0.5986994504928589,
                    0.05248856917023659,
                    0.32397228479385376,
                    -0.6105983257293701
                ],
                [
                    0.06331468373537064,
                    -0.126788929104805,
                    0.06259618699550629,
                    0.18638277053833008,
                    0.40247011184692383
                ],
                [
                    -0.6838805675506592,
                    0.2285711020231247,
                    -0.0905219167470932,
                    -0.09719307720661163,
                    0.5173763036727905
                ],
                [
                    -0.7729340195655823,
                    -0.3696415424346924,
                    -0.42273789644241333,
                    0.07793357223272324,
                    -0.27625375986099243
                ]
            ]
        ],
        [
            [
                [
                    0.010615367442369461,
                    -0.14114104211330414,
                    -0.4989873170852661,
                    -0.3060494661331177,
                    -0.8152855038642883
                ],
                [
                    0.43727198243141174,
                    -0.5511346459388733,
                    0.16468016803264618,
                    -0.1696033924818039,
                    -0.2284177839756012
                ],
                [
                    0.3512309789657593,
                    0.3197513818740845,
                    0.5499764084815979,
                    0.15375684201717377,
                    0.0893833115696907
                ],
                [
                    0.15145690739154816,
                    0.06353750079870224,
                    0.21273982524871826,
                    0.42548367381095886,
                    0.40380626916885376
                ],
                [
                    -0.7678765058517456,
                    0.12926799058914185,
                    -0.17437498271465302,
                    -0.06751782447099686,
                    -0.4553757905960083
                ]
            ]
        ],
        [
            [
                [
                    -0.22950907051563263,
                    0.1953740417957306,
                    -0.3185468912124634,
                    0.20957939326763153,
                    0.12384817749261856
                ],
                [
                    0.19379368424415588,
                    0.31828030943870544,
                    -0.07321181148290634,
                    0.20100560784339905,
                    -0.6708808541297913
                ],
                [
                    0.1528645157814026,
                    -0.07617195695638657,
                    0.13213545083999634,
                    -0.25901883840560913,
                    -0.39737993478775024
                ],
                [
                    0.011932088993489742,
                    0.5000219941139221,
                    -0.3716807961463928,
                    -0.4170256555080414,
                    -0.19174796342849731
                ],
                [
                    0.46253037452697754,
                    0.22037778794765472,
                    0.34973251819610596,
                    -0.5048888325691223,
                    -0.2799580991268158
                ]
            ]
        ],
        [
            [
                [
                    -1.3630211353302002,
                    -0.6401904821395874,
                    0.37227052450180054,
                    0.31125035881996155,
                    0.43148553371429443
                ],
                [
                    -0.4627814292907715,
                    -0.46000245213508606,
                    0.20782990753650665,
                    -0.23495247960090637,
                    0.2843833863735199
                ],
                [
                    -0.6480698585510254,
                    0.25206008553504944,
                    -0.4246014356613159,
                    -0.22240221500396729,
                    0.26472872495651245
                ],
                [
                    -0.0337427482008934,
                    -0.3247101306915283,
                    0.17905235290527344,
                    0.5051984190940857,
                    -0.20742341876029968
                ],
                [
                    -0.24286724627017975,
                    0.31862157583236694,
                    -0.1917070895433426,
                    0.21288558840751648,
                    -0.15503185987472534
                ]
            ]
        ],
        [
            [
                [
                    -0.3895476162433624,
                    -0.5506163835525513,
                    -0.25716498494148254,
                    -0.27724742889404297,
                    -0.3509642779827118
                ],
                [
                    -0.2984800338745117,
                    -0.5397575497627258,
                    -0.3263837397098541,
                    -0.35589128732681274,
                    -0.031772974878549576
                ],
                [
                    0.9065777063369751,
                    0.24027231335639954,
                    0.21081623435020447,
                    -0.21685341000556946,
                    -0.1049148216843605
                ],
                [
                    0.2539505064487457,
                    0.07234828174114227,
                    -0.7159824371337891,
                    -0.36907586455345154,
                    -0.11666986346244812
                ],
                [
                    0.10681973397731781,
                    -0.5913371443748474,
                    -0.6564643383026123,
                    -0.18126331269741058,
                    -0.1749834269285202
                ]
            ]
        ],
        [
            [
                [
                    -0.49151599407196045,
                    -0.1738407015800476,
                    -0.16591034829616547,
                    0.33080005645751953,
                    0.16255097091197968
                ],
                [
                    -0.09987414628267288,
                    -0.47485780715942383,
                    -1.110392451286316,
                    -0.2147943377494812,
                    -0.1603563278913498
                ],
                [
                    -0.420372873544693,
                    -0.3867975175380707,
                    -0.8582326769828796,
                    0.08862164616584778,
                    0.19305697083473206
                ],
                [
                    -0.025616362690925598,
                    -0.6228832602500916,
                    0.4756714105606079,
                    -0.06021348014473915,
                    0.2393151819705963
                ],
                [
                    -0.045599181205034256,
                    0.4455235004425049,
                    0.5426756143569946,
                    0.4059910774230957,
                    -0.41519975662231445
                ]
            ]
        ],
        [
            [
                [
                    -0.632146954536438,
                    -0.3686971366405487,
                    -0.28386005759239197,
                    -0.7742559909820557,
                    0.23502875864505768
                ],
                [
                    -1.0630308389663696,
                    0.05420795455574989,
                    0.08580067753791809,
                    -0.04114978760480881,
                    -0.582039475440979
                ],
                [
                    -0.4954928755760193,
                    -0.1493266224861145,
                    0.04010045900940895,
                    -0.36133241653442383,
                    -0.31142890453338623
                ],
                [
                    -1.107911467552185,
                    -0.17693957686424255,
                    0.7940291166305542,
                    0.21154223382472992,
                    -0.6812838315963745
                ],
                [
                    -0.9052566289901733,
                    0.14627091586589813,
                    0.5640128254890442,
                    -0.1362677812576294,
                    -0.8694247603416443
                ]
            ]
        ],
        [
            [
                [
                    -0.18520331382751465,
                    -0.7219445705413818,
                    -0.001548737520352006,
                    0.3406131863594055,
                    -0.6490828394889832
                ],
                [
                    0.2461247593164444,
                    0.4142444431781769,
                    0.43057534098625183,
                    0.18118816614151,
                    0.1640215814113617
                ],
                [
                    0.3103576898574829,
                    0.11740061640739441,
                    0.2889741361141205,
                    0.19554881751537323,
                    -0.23755592107772827
                ],
                [
                    -0.3057376444339752,
                    -0.7412104606628418,
                    0.294582724571228,
                    0.5610352158546448,
                    -0.08700886368751526
                ],
                [
                    -0.8043221235275269,
                    -1.0609056949615479,
                    -0.5611975789070129,
                    0.11632908135652542,
                    0.4044603109359741
                ]
            ]
        ],
        [
            [
                [
                    -0.9649233222007751,
                    -0.5791548490524292,
                    0.2255469113588333,
                    0.6187757253646851,
                    0.40857207775115967
                ],
                [
                    -0.6072739958763123,
                    -1.5099951028823853,
                    -1.783650517463684,
                    -0.08904432505369186,
                    0.40531304478645325
                ],
                [
                    0.5711159706115723,
                    -0.29723116755485535,
                    -1.1743806600570679,
                    -0.9388357400894165,
                    -0.9631119966506958
                ],
                [
                    0.5331937670707703,
                    -0.006954418495297432,
                    -0.25732144713401794,
                    -0.07919735461473465,
                    -0.8587234020233154
                ],
                [
                    -0.19344612956047058,
                    0.6318071484565735,
                    0.08099061250686646,
                    0.23805032670497894,
                    -0.31915777921676636
                ]
            ]
        ],
        [
            [
                [
                    0.3504270613193512,
                    0.43193942308425903,
                    0.29461050033569336,
                    -0.0056859757751226425,
                    0.0033867403399199247
                ],
                [
                    -0.5511417984962463,
                    0.3704635202884674,
                    0.18396428227424622,
                    0.5416919589042664,
                    0.18230868875980377
                ],
                [
                    -0.40746018290519714,
                    -0.21861310303211212,
                    -0.22395969927310944,
                    -0.41632556915283203,
                    -1.0154194831848145
                ],
                [
                    -0.79252028465271,
                    -0.6144946813583374,
                    -0.5660101175308228,
                    -0.8148626089096069,
                    -0.5351855754852295
                ],
                [
                    -0.7227452397346497,
                    -0.6198886036872864,
                    -0.07108143717050552,
                    0.14345355331897736,
                    0.23431533575057983
                ]
            ]
        ]
    ],
    "conv1.bias": [
        -0.7315047383308411,
        -0.6174421906471252,
        -0.5824242234230042,
        -0.39804261922836304,
        -0.17195193469524384,
        -0.5471789836883545,
        -0.20500582456588745,
        -0.6724514961242676,
        -0.21020466089248657,
        -0.12477670609951019
    ],
    "conv2.weight": [
        [
            [
                [
                    -0.07883910089731216,
                    0.08874908089637756,
                    0.06484641879796982,
                    -0.1151275634765625,
                    -0.4722997546195984
                ],
                [
                    -0.1655532270669937,
                    0.1061018630862236,
                    0.23208186030387878,
                    0.10281160473823547,
                    0.10157991200685501
                ],
                [
                    -0.24439990520477295,
                    -0.280495822429657,
                    -0.1437140256166458,
                    -0.030439525842666626,
                    0.10969231277704239
                ],
                [
                    -0.20605461299419403,
                    -0.4946717619895935,
                    -0.2874942421913147,
                    0.4064772427082062,
                    -0.0015527002979069948
                ],
                [
                    -0.34365007281303406,
                    -0.16652728617191315,
                    -0.293183296918869,
                    -0.38370564579963684,
                    -0.5735772252082825
                ]
            ],
            [
                [
                    -0.15750986337661743,
                    -0.16612152755260468,
                    0.12754380702972412,
                    0.126497283577919,
                    -0.18459908664226532
                ],
                [
                    -0.1609661877155304,
                    -0.18379871547222137,
                    -0.225723996758461,
                    -0.14072485268115997,
                    0.08694224059581757
                ],
                [
                    -0.3128639757633209,
                    -0.22690026462078094,
                    0.10808376967906952,
                    -0.10504961013793945,
                    -0.04042136296629906
                ],
                [
                    -0.3268468976020813,
                    0.18548455834388733,
                    -0.19843685626983643,
                    -0.08765159547328949,
                    0.053517840802669525
                ],
                [
                    -0.08466405421495438,
                    -0.3459625840187073,
                    -0.19377665221691132,
                    0.028230533003807068,
                    -0.23011375963687897
                ]
            ],
            [
                [
                    0.23555506765842438,
                    -0.3211084306240082,
                    -0.2757226824760437,
                    -0.03710204362869263,
                    0.26333895325660706
                ],
                [
                    -0.039895620197057724,
                    -0.170009583234787,
                    0.11342314630746841,
                    -0.10096947848796844,
                    0.2021428942680359
                ],
                [
                    -0.4079289436340332,
                    -0.14015597105026245,
                    -0.3171079754829407,
                    -0.2203025370836258,
                    -0.11906380206346512
                ],
                [
                    -0.7694442272186279,
                    -0.8003026247024536,
                    -0.8171983361244202,
                    -0.35982999205589294,
                    -0.48684319853782654
                ],
                [
                    0.19132894277572632,
                    -0.015520366840064526,
                    -0.3284391462802887,
                    -0.32038310170173645,
                    -0.0024939097929745913
                ]
            ],
            [
                [
                    -0.3770962357521057,
                    -0.2831135392189026,
                    0.018158454447984695,
                    0.25993138551712036,
                    -0.03434775397181511
                ],
                [
                    -0.3589535057544708,
                    0.12555304169654846,
                    0.04186409339308739,
                    -0.11766838282346725,
                    -0.10717334598302841
                ],
                [
                    -0.45430752635002136,
                    0.4041467308998108,
                    0.10873010009527206,
                    0.024136843159794807,
                    0.03497367724776268
                ],
                [
                    -0.4700198173522949,
                    0.18530572950839996,
                    0.2056519240140915,
                    0.3431910574436188,
                    -0.2378910630941391
                ],
                [
                    -0.5143129825592041,
                    -0.2974092364311218,
                    -0.40787839889526367,
                    -0.047911036759614944,
                    -0.011732196435332298
                ]
            ],
            [
                [
                    0.23894810676574707,
                    0.05778498575091362,
                    -0.11692290008068085,
                    0.45117154717445374,
                    0.1048627644777298
                ],
                [
                    -0.04847858473658562,
                    -0.028459159657359123,
                    0.12252800911664963,
                    0.05096577852964401,
                    0.5194586515426636
                ],
                [
                    -0.15529505908489227,
                    0.10598070919513702,
                    -0.03973513841629028,
                    0.12349981814622879,
                    0.34561097621917725
                ],
                [
                    0.04739799350500107,
                    0.07086439430713654,
                    0.09438113868236542,
                    0.15593238174915314,
                    0.27744361758232117
                ],
                [
                    0.11319663375616074,
                    0.18389803171157837,
                    0.1433037668466568,
                    0.043892085552215576,
                    0.01735823042690754
                ]
            ],
            [
                [
                    -0.13747085630893707,
                    -0.11476585268974304,
                    -0.1517360806465149,
                    -0.29854318499565125,
                    0.10029210895299911
                ],
                [
                    -0.10281369835138321,
                    0.04592705890536308,
                    0.04001966491341591,
                    -0.15224286913871765,
                    -0.034862108528614044
                ],
                [
                    -0.5516664385795593,
                    -0.5021230578422546,
                    -0.12546317279338837,
                    0.0673401951789856,
                    -0.007474086247384548
                ],
                [
                    -0.32296329736709595,
                    -0.3992687165737152,
                    -0.4315454959869385,
                    -0.4074249267578125,
                    -0.5192824602127075
                ],
                [
                    0.44075942039489746,
                    0.12236049026250839,
                    0.1962873935699463,
                    0.49590709805488586,
                    0.2614201009273529
                ]
            ],
            [
                [
                    -0.0020910361781716347,
                    0.07377831637859344,
                    -0.034371376037597656,
                    -0.1034916490316391,
                    0.06993033736944199
                ],
                [
                    0.030268114060163498,
                    0.03361289203166962,
                    -0.06481524556875229,
                    -0.06254000961780548,
                    0.3398306667804718
                ],
                [
                    0.004902154207229614,
                    0.11633024364709854,
                    0.05662490054965019,
                    -0.06451216340065002,
                    0.35776808857917786
                ],
                [
                    0.19073231518268585,
                    0.03291085734963417,
                    0.2042294442653656,
                    -0.020436085760593414,
                    -0.1944269835948944
                ],
                [
                    0.01811322197318077,
                    0.22796876728534698,
                    -0.011645175516605377,
                    -0.002977688331156969,
                    -0.12471604347229004
                ]
            ],
            [
                [
                    0.014391918666660786,
                    0.058616526424884796,
                    0.02221870794892311,
                    0.06501545757055283,
                    -0.022712400183081627
                ],
                [
                    -0.501758873462677,
                    0.1462499052286148,
                    -0.2993317246437073,
                    0.28256672620773315,
                    0.2842903137207031
                ],
                [
                    -0.2657870054244995,
                    -0.12446177005767822,
                    -0.14422671496868134,
                    0.2512795329093933,
                    0.04063662514090538
                ],
                [
                    -0.013216989114880562,
                    -0.2319994568824768,
                    0.02346663549542427,
                    0.1802036464214325,
                    0.25299498438835144
                ],
                [
                    -0.27430710196495056,
                    -0.2793971002101898,
                    -0.11413854360580444,
                    -0.4042443335056305,
                    -0.9566569924354553
                ]
            ],
            [
                [
                    -0.11116930842399597,
                    -0.31651410460472107,
                    -0.5365514159202576,
                    -0.31590771675109863,
                    -0.2189980000257492
                ],
                [
                    -0.22971311211585999,
                    0.13168217241764069,
                    -0.7026087641716003,
                    -0.23494696617126465,
                    0.05259360000491142
                ],
                [
                    -0.20632778108119965,
                    0.14804162085056305,
                    0.09943949431180954,
                    -0.0911666750907898,
                    0.03650965914130211
                ],
                [
                    0.1961410492658615,
                    0.29541701078414917,
                    0.020795492455363274,
                    0.39292293787002563,
                    0.41292405128479004
                ],
                [
                    0.41014280915260315,
                    0.5567131042480469,
                    0.470965176820755,
                    0.237013041973114,
                    -0.2474903166294098
                ]
            ],
            [
                [
                    0.3215996026992798,
                    0.18495872616767883,
                    -0.3468684256076813,
                    0.1325436681509018,
                    0.03283454105257988
                ],
                [
                    -0.028700605034828186,
                    0.04578015208244324,
                    -0.0940948948264122,
                    0.07989969849586487,
                    0.08516879379749298
                ],
                [
                    -0.0096766771748662,
                    0.02704225294291973,
                    0.15185736119747162,
                    0.05958441272377968,
                    0.07459995895624161
                ],
                [
                    0.1440354585647583,
                    -0.040105897933244705,
                    0.11176049709320068,
                    -0.004996904172003269,
                    0.3114455044269562
                ],
                [
                    -0.14077508449554443,
                    -0.27061665058135986,
                    0.1288691610097885,
                    0.08631039410829544,
                    0.04135430231690407
                ]
            ]
        ],
        [
            [
                [
                    -0.252103716135025,
                    -0.19788457453250885,
                    -0.171809583902359,
                    -0.06489946693181992,
                    -0.12475329637527466
                ],
                [
                    -0.0005981347057968378,
                    -0.11865408718585968,
                    -0.17017659544944763,
                    -0.2717618942260742,
                    -0.23417027294635773
                ],
                [
                    -0.0070767151191830635,
                    -0.15943382680416107,
                    -0.1574924886226654,
                    0.06433946639299393,
                    0.05646858736872673
                ],
                [
                    -0.32258912920951843,
                    -0.15788261592388153,
                    0.10141494125127792,
                    0.11460385471582413,
                    -0.04304644092917442
                ],
                [
                    -0.01661074534058571,
                    0.11528831720352173,
                    0.030900366604328156,
                    0.29969844222068787,
                    0.2673072814941406
                ]
            ],
            [
                [
                    0.017591407522559166,
                    0.012945378199219704,
                    -0.1061215028166771,
                    -0.11498007923364639,
                    0.07239466160535812
                ],
                [
                    -0.03321484476327896,
                    0.10055513679981232,
                    -0.09811380505561829,
                    0.024921424686908722,
                    0.06414886564016342
                ],
                [
                    0.10772902518510818,
                    0.04551345482468605,
                    0.1503259539604187,
                    0.2115657925605774,
                    0.05813893675804138
                ],
                [
                    0.16736401617527008,
                    0.18922032415866852,
                    0.028686249628663063,
                    0.2424468696117401,
                    -0.24892260134220123
                ],
                [
                    -0.05036300793290138,
                    0.010807033628225327,
                    0.029011454433202744,
                    0.07139229774475098,
                    0.12087728828191757
                ]
            ],
            [
                [
                    0.45695826411247253,
                    0.282858669757843,
                    -0.3107959032058716,
                    -0.41353511810302734,
                    0.007172001525759697
                ],
                [
                    0.210878387093544,
                    -0.29623985290527344,
                    -0.6236072182655334,
                    -0.20754824578762054,
                    -0.02208069898188114
                ],
                [
                    -0.1683911681175232,
                    -0.7242026329040527,
                    -0.3429802656173706,
                    0.2622442841529846,
                    0.041465528309345245
                ],
                [
                    -0.05434708297252655,
                    -0.2898070812225342,
                    0.41871440410614014,
                    -0.004367444664239883,
                    -0.18062983453273773
                ],
                [
                    0.35862046480178833,
                    -0.18909037113189697,
                    0.07026537507772446,
                    0.1177506148815155,
                    -0.1202244684100151
                ]
            ],
            [
                [
                    -0.12867571413516998,
                    0.1436092108488083,
                    0.16326169669628143,
                    0.13384075462818146,
                    0.21116913855075836
                ],
                [
                    -0.30187588930130005,
                    0.043118175119161606,
                    -0.45944079756736755,
                    -0.08371395617723465,
                    -0.08008608967065811
                ],
                [
                    -0.07187843322753906,
                    -0.33762022852897644,
                    -0.5065373778343201,
                    -0.21184535324573517,
                    -0.09052836149930954
                ],
                [
                    0.20933711528778076,
                    0.02460034005343914,
                    -0.27490752935409546,
                    -0.392948180437088,
                    -0.31106650829315186
                ],
                [
                    0.123018279671669,
                    -0.4480379521846771,
                    -0.27524933218955994,
                    -0.1749836802482605,
                    -0.8029753565788269
                ]
            ],
            [
                [
                    0.23593904078006744,
                    0.29365795850753784,
                    0.1632390320301056,
                    0.05752476677298546,
                    0.3233984112739563
                ],
                [
                    0.13216647505760193,
                    0.12946197390556335,
                    0.15374405682086945,
                    0.024708829820156097,
                    -0.011710967868566513
                ],
                [
                    0.13153360784053802,
                    -0.05454609915614128,
                    -0.16365745663642883,
                    0.06682676821947098,
                    -0.10480816662311554
                ],
                [
                    0.0033836052753031254,
                    0.03872513025999069,
                    -0.1511879861354828,
                    -0.05243277549743652,
                    0.2029620110988617
                ],
                [
                    0.08148147165775299,
                    0.1303739696741104,
                    -0.04316035658121109,
                    0.07099887728691101,
                    0.023740660399198532
                ]
            ],
            [
                [
                    -0.12199762463569641,
                    -0.19807885587215424,
                    -0.11707726120948792,
                    -0.5127162933349609,
                    -0.14116071164608002
                ],
                [
                    -0.009180420078337193,
                    -0.17052197456359863,
                    0.19760730862617493,
                    0.324025958776474,
                    0.3587222099304199
                ],
                [
                    0.08871490508317947,
                    -0.041675493121147156,
                    -0.004763152450323105,
                    0.18562613427639008,
                    0.39816805720329285
                ],
                [
                    0.22385628521442413,
                    0.005393482744693756,
                    0.054116155952215195,
                    -0.30569353699684143,
                    -0.3044547140598297
                ],
                [
                    -0.0639956146478653,
                    -0.48484838008880615,
                    -0.25695109367370605,
                    -0.22005416452884674,
                    -0.21176013350486755
                ]
            ],
            [
                [
                    0.2626859247684479,
                    0.3439735472202301,
                    0.33423468470573425,
                    0.00676327757537365,
                    0.09646358340978622
                ],
                [
                    0.2354784905910492,
                    0.32282137870788574,
                    0.03874554485082626,
                    -0.31405380368232727,
                    -0.3258323073387146
                ],
                [
                    0.3493945300579071,
                    -0.05035623535513878,
                    0.030096085742115974,
                    -0.3099731504917145,
                    0.12031463533639908
                ],
                [
                    -0.017673997208476067,
                    -0.07269430160522461,
                    -0.11802531033754349,
                    -0.008772180415689945,
                    0.10496968030929565
                ],
                [
                    0.04152940958738327,
                    -0.1317649483680725,
                    -0.020632943138480186,
                    -0.04750891029834747,
                    -0.12305621057748795
                ]
            ],
            [
                [
                    0.05288342386484146,
                    -0.13345623016357422,
                    0.10010723769664764,
                    0.04114999622106552,
                    -0.1450616866350174
                ],
                [
                    0.19783970713615417,
                    0.09664006531238556,
                    0.14952145516872406,
                    -0.24872031807899475,
                    -0.11068183928728104
                ],
                [
                    0.1477576047182083,
                    -0.019494924694299698,
                    -0.07109299302101135,
                    -0.2841784954071045,
                    0.3183055818080902
                ],
                [
                    0.2963079512119293,
                    -0.19487327337265015,
                    -0.2354469746351242,
                    -0.07707826793193817,
                    -0.08047253638505936
                ],
                [
                    0.019379794597625732,
                    0.07803599536418915,
                    0.14313596487045288,
                    0.0650552436709404,
                    0.07264786213636398
                ]
            ],
            [
                [
                    0.007082869298756123,
                    0.07904691994190216,
                    0.08070044219493866,
                    -0.08805090188980103,
                    0.324461430311203
                ],
                [
                    0.3559856414794922,
                    0.5086673498153687,
                    -0.10465500503778458,
                    -0.30624839663505554,
                    -0.18092629313468933
                ],
                [
                    0.2841115891933441,
                    0.11458129435777664,
                    -0.45906373858451843,
                    -0.45290422439575195,
                    -0.5734544396400452
                ],
                [
                    -0.3415313959121704,
                    -0.26645922660827637,
                    -0.8339170813560486,
                    -0.5767172574996948,
                    -0.0608939453959465
                ],
                [
                    -0.4651891589164734,
                    -0.8581413626670837,
                    -0.42981839179992676,
                    0.036611273884773254,
                    0.1954631209373474
                ]
            ],
            [
                [
                    0.07857050746679306,
                    -0.1351420283317566,
                    -0.04181097075343132,
                    0.10395874083042145,
                    0.16461753845214844
                ],
                [
                    -0.10317137837409973,
                    -0.0926264077425003,
                    0.12911079823970795,
                    -0.03609601408243179,
                    -0.252454936504364
                ],
                [
                    -0.3864305019378662,
                    -0.5455607175827026,
                    -0.23308409750461578,
                    -0.3048746883869171,
                    0.3891353905200958
                ],
                [
                    -0.08872345834970474,
                    -0.2167322039604187,
                    -0.37344759702682495,
                    -0.002515943720936775,
                    0.47159484028816223
                ],
                [
                    -0.1649468094110489,
                    -0.03818632289767265,
                    -0.03098205290734768,
                    -0.15298138558864594,
                    0.374449223279953
                ]
            ]
        ],
        [
            [
                [
                    0.049614667892456055,
                    0.029782511293888092,
                    -0.03348090127110481,
                    -0.09024965763092041,
                    -0.23355770111083984
                ],
                [
                    0.16716977953910828,
                    0.01649755984544754,
                    -0.3770771026611328,
                    -0.04976680874824524,
                    -0.061751049011945724
                ],
                [
                    -0.05453869700431824,
                    -0.23675969243049622,
                    -0.12957416474819183,
                    0.1099805012345314,
                    0.046226248145103455
                ],
                [
                    0.035334207117557526,
                    -0.39118990302085876,
                    -0.0943787470459938,
                    -0.03220195323228836,
                    0.0026214243844151497
                ],
                [
                    -0.1540318727493286,
                    -0.29511916637420654,
                    -0.02900034375488758,
                    0.0738949254155159,
                    -0.0016966370167210698
                ]
            ],
            [
                [
                    -0.17772985994815826,
                    -0.41135290265083313,
                    -0.6411917805671692,
                    -0.45668572187423706,
                    -0.8961820602416992
                ],
                [
                    -0.24065226316452026,
                    -0.5878312587738037,
                    -0.12653517723083496,
                    -0.053750474005937576,
                    -0.01687946915626526
                ],
                [
                    -0.29575812816619873,
                    -0.41686785221099854,
                    0.2521653473377228,
                    0.14821283519268036,
                    0.1240634024143219
                ],
                [
                    -0.07307139039039612,
                    -0.11725011467933655,
                    0.11086662858724594,
                    0.35257256031036377,
                    -0.2945607006549835
                ],
                [
                    -0.39793407917022705,
                    -0.6006184816360474,
                    -0.23301170766353607,
                    0.09208738058805466,
                    -0.030150799080729485
                ]
            ],
            [
                [
                    0.24862341582775116,
                    0.23723436892032623,
                    0.06966327875852585,
                    -0.33605077862739563,
                    -0.21892774105072021
                ],
                [
                    0.14951257407665253,
                    -0.17279139161109924,
                    -0.295223206281662,
                    -0.16357843577861786,
                    -0.13597042858600616
                ],
                [
                    0.1867600828409195,
                    -0.22376903891563416,
                    -0.03749651089310646,
                    -0.3101084232330322,
                    0.008140211924910545
                ],
                [
                    0.38773223757743835,
                    -0.05751575902104378,
                    -0.08206836134195328,
                    0.02138185314834118,
                    0.26044777035713196
                ],
                [
                    0.3973875343799591,
                    -0.04686571657657623,
                    0.06831131875514984,
                    -0.17737706005573273,
                    -0.009469847194850445
                ]
            ],
            [
                [
                    0.1601676642894745,
                    0.08888782560825348,
                    0.06879708915948868,
                    0.16396914422512054,
                    0.04052901640534401
                ],
                [
                    0.10324252396821976,
                    -0.32395845651626587,
                    -0.3676711916923523,
                    -0.13146375119686127,
                    0.02026972733438015
                ],
                [
                    -0.10176711529493332,
                    -0.3581070303916931,
                    -0.04960224777460098,
                    0.04137229919433594,
                    0.0993921086192131
                ],
                [
                    -0.21540361642837524,
                    -0.05936892330646515,
                    0.013063195161521435,
                    0.014286003075540066,
                    -0.26413241028785706
                ],
                [
                    -0.21691861748695374,
                    -0.058110352605581284,
                    -0.0759589895606041,
                    0.15768234431743622,
                    -0.13453800976276398
                ]
            ],
            [
                [
                    -0.16346147656440735,
                    0.04569772630929947,
                    -0.6139615178108215,
                    -0.1710396409034729,
                    -0.22934116423130035
                ],
                [
                    0.7209290862083435,
                    0.2610805630683899,
                    -0.1366633027791977,
                    -0.0984780341386795,
                    0.44775211811065674
                ],
                [
                    0.6560656428337097,
                    0.41518983244895935,
                    0.05533353239297867,
                    0.08910330384969711,
                    0.2934519052505493
                ],
                [
                    0.8057563304901123,
                    0.35991370677948,
                    0.10784962028265,
                    0.08058298379182816,
                    0.3064376711845398
                ],
                [
                    0.5375596880912781,
                    0.020708244293928146,
                    0.05417181923985481,
                    -0.06415697187185287,
                    -0.027051173150539398
                ]
            ],
            [
                [
                    0.14385059475898743,
                    -0.21492306888103485,
                    -0.04561080411076546,
                    -0.0751962959766388,
                    -0.33204376697540283
                ],
                [
                    -0.33801504969596863,
                    -0.47914746403694153,
                    0.10068072378635406,
                    0.2916140854358673,
                    0.4994964599609375
                ],
                [
                    -0.17812637984752655,
                    -0.29811593890190125,
                    0.18844369053840637,
                    0.3522217273712158,
                    0.3387669324874878
                ],
                [
                    -0.03767457231879234,
                    0.012885800562798977,
                    -0.015966374427080154,
                    -0.06417764723300934,
                    -0.49687424302101135
                ],
                [
                    -0.007887408137321472,
                    -0.346677303314209,
                    -0.3050214946269989,
                    -0.5016717314720154,
                    0.12100457400083542
                ]
            ],
            [
                [
                    0.2486467808485031,
                    -0.01274106279015541,
                    -0.007959236390888691,
                    0.4924462139606476,
                    -0.01706331968307495
                ],
                [
                    0.301788866519928,
                    0.043615084141492844,
                    0.04830048605799675,
                    0.4013490080833435,
                    0.31600886583328247
                ],
                [
                    0.4017709791660309,
                    0.13206747174263,
                    0.10641056299209595,
                    0.1459718644618988,
                    0.20689703524112701
                ],
                [
                    0.18286435306072235,
                    0.023660562932491302,
                    0.2258598357439041,
                    0.2979660928249359,
                    0.35341566801071167
                ],
                [
                    -0.02288193628191948,
                    -0.16382773220539093,
                    0.08402393013238907,
                    0.06803151220083237,
                    0.127065509557724
                ]
            ],
            [
                [
                    -0.28352436423301697,
                    -0.27565696835517883,
                    -0.3178839683532715,
                    -0.30283766984939575,
                    -0.35094547271728516
                ],
                [
                    -0.06759157031774521,
                    -0.33539682626724243,
                    -0.3833136558532715,
                    -0.20580127835273743,
                    -0.3038138151168823
                ],
                [
                    -0.5185556411743164,
                    -0.42476630210876465,
                    0.06768379360437393,
                    -0.3023635745048523,
                    -0.1169898509979248
                ],
                [
                    -0.18468964099884033,
                    -0.11347707360982895,
                    -0.023944692686200142,
                    -0.18318715691566467,
                    -0.19836759567260742
                ],
                [
                    -0.4186144471168518,
                    0.07272312790155411,
                    -0.04714089632034302,
                    0.33140355348587036,
                    -0.03194136172533035
                ]
            ],
            [
                [
                    -0.35559552907943726,
                    -0.2354174107313156,
                    -0.5176093578338623,
                    0.12327797710895538,
                    -0.03711928799748421
                ],
                [
                    0.2576768398284912,
                    0.09333266317844391,
                    -0.30496618151664734,
                    0.08403196930885315,
                    0.03157944977283478
                ],
                [
                    0.2840363383293152,
                    0.06602641195058823,
                    -0.13659271597862244,
                    -0.20395971834659576,
                    -0.16705581545829773
                ],
                [
                    0.4418204724788666,
                    0.23251581192016602,
                    -0.25667333602905273,
                    -0.26295024156570435,
                    0.04986827075481415
                ],
                [
                    0.07946892082691193,
                    0.04685856029391289,
                    -0.3279229402542114,
                    -0.20986267924308777,
                    0.04683081805706024
                ]
            ],
            [
                [
                    0.15581442415714264,
                    0.29418328404426575,
                    0.33957183361053467,
                    -0.0074850283563137054,
                    -0.1637527048587799
                ],
                [
                    0.2764129042625427,
                    0.17253290116786957,
                    -0.23798052966594696,
                    -0.33325791358947754,
                    -0.22951927781105042
                ],
                [
                    0.3768250644207001,
                    0.2288680374622345,
                    -0.08569161593914032,
                    -0.02057821676135063,
                    -0.18037407100200653
                ],
                [
                    -0.14930880069732666,
                    -0.44646698236465454,
                    -0.5483667850494385,
                    -0.396156907081604,
                    -0.03830871358513832
                ],
                [
                    -0.45946869254112244,
                    -0.5086870193481445,
                    -0.6147305369377136,
                    -0.7496616244316101,
                    -0.6241201758384705
                ]
            ]
        ],
        [
            [
                [
                    0.11466243118047714,
                    0.021748658269643784,
                    -0.07675915956497192,
                    -0.08079904317855835,
                    0.2828148305416107
                ],
                [
                    0.06295253336429596,
                    -0.024450799450278282,
                    0.10175872594118118,
                    0.22964264452457428,
                    0.12749990820884705
                ],
                [
                    -0.3787305951118469,
                    -0.1983281373977661,
                    -0.07863784581422806,
                    0.040979113429784775,
                    -0.2790195345878601
                ],
                [
                    -0.23168911039829254,
                    0.032316118478775024,
                    0.08096553385257721,
                    -0.1752680242061615,
                    -0.32418957352638245
                ],
                [
                    -0.08709972351789474,
                    -0.08803601562976837,
                    -0.3230397403240204,
                    -0.35205182433128357,
                    -0.1288626492023468
                ]
            ],
            [
                [
                    0.14833509922027588,
                    0.15987122058868408,
                    -0.055944133549928665,
                    0.17515325546264648,
                    0.46801966428756714
                ],
                [
                    -0.21614408493041992,
                    0.26964497566223145,
                    -0.08173227310180664,
                    -0.07369589805603027,
                    -0.12214134633541107
                ],
                [
                    -0.1606322079896927,
                    -0.13866561651229858,
                    -0.34595590829849243,
                    -0.543659508228302,
                    -0.4167599081993103
                ],
                [
                    0.15994511544704437,
                    -0.13975152373313904,
                    -0.5199221968650818,
                    -0.39695075154304504,
                    -0.22043903172016144
                ],
                [
                    -0.010519180446863174,
                    -0.3791792690753937,
                    -0.6139037013053894,
                    -0.244865283370018,
                    0.0824061781167984
                ]
            ],
            [
                [
                    -0.5777232646942139,
                    -0.11003216356039047,
                    -0.028942273929715157,
                    -0.09564151614904404,
                    -0.10704369097948074
                ],
                [
                    -0.3232610523700714,
                    -0.14200368523597717,
                    0.2647812068462372,
                    0.2967987358570099,
                    0.17954020202159882
                ],
                [
                    -0.25515034794807434,
                    0.008752895519137383,
                    0.01553296111524105,
                    0.17156213521957397,
                    -0.5412869453430176
                ],
                [
                    0.22647184133529663,
                    -0.09776367992162704,
                    -0.2689144015312195,
                    -0.5752580761909485,
                    0.002962743164971471
                ],
                [
                    0.14063973724842072,
                    -0.13854828476905823,
                    -0.32819676399230957,
                    -0.1773838847875595,
                    -0.3550506830215454
                ]
            ],
            [
                [
                    -0.6099404096603394,
                    -0.3714534044265747,
                    -0.045357540249824524,
                    -0.08937590569257736,
                    -0.278801292181015
                ],
                [
                    -0.10281112045049667,
                    0.3151542842388153,
                    0.018549924716353416,
                    0.08623094111680984,
                    0.02074708603322506
                ],
                [
                    0.15673677623271942,
                    -0.06074535474181175,
                    0.38676515221595764,
                    -0.06161738932132721,
                    -0.08133088797330856
                ],
                [
                    -0.19314230978488922,
                    0.016910092905163765,
                    -0.15191417932510376,
                    -0.33093681931495667,
                    -0.11734998226165771
                ],
                [
                    -0.22086435556411743,
                    -0.4004155695438385,
                    -0.37643298506736755,
                    -0.04838937148451805,
                    0.06704842299222946
                ]
            ],
            [
                [
                    0.04738420248031616,
                    0.3712916970252991,
                    0.2791886329650879,
                    0.31715962290763855,
                    0.09435901045799255
                ],
                [
                    0.016000080853700638,
                    0.12082597613334656,
                    0.43196016550064087,
                    0.10902569442987442,
                    -0.0015031266957521439
                ],
                [
                    -0.061933066695928574,
                    -0.038754794746637344,
                    0.13712173700332642,
                    0.1351611465215683,
                    -0.059551630169153214
                ],
                [
                    -0.00297991163097322,
                    0.14436329901218414,
                    0.051636703312397,
                    0.07984999567270279,
                    -0.00034094395232386887
                ],
                [
                    -0.07291257381439209,
                    0.0740736797451973,
                    0.020303525030612946,
                    0.008904878050088882,
                    0.020968638360500336
                ]
            ],
            [
                [
                    -0.3534124493598938,
                    0.07104476541280746,
                    0.06258372962474823,
                    0.08544063568115234,
                    0.37032514810562134
                ],
                [
                    -0.22078078985214233,
                    0.17743313312530518,
                    0.13039839267730713,
                    0.12162766605615616,
                    -0.2788331210613251
                ],
                [
                    0.07790388911962509,
                    -0.11342772841453552,
                    -0.0969671979546547,
                    -0.06652037054300308,
                    -0.5042828917503357
                ],
                [
                    0.015948286280035973,
                    -0.1935914009809494,
                    -0.1549767702817917,
                    -0.35589799284935,
                    -0.03137648478150368
                ],
                [
                    0.0653473287820816,
                    0.041315674781799316,
                    0.17937585711479187,
                    0.10010673105716705,
                    0.26192453503608704
                ]
            ],
            [
                [
                    0.10661926120519638,
                    0.6074207425117493,
                    0.6067267060279846,
                    0.2276373952627182,
                    0.04378120228648186
                ],
                [
                    0.12313888967037201,
                    0.21480320394039154,
                    0.18329469859600067,
                    0.18363334238529205,
                    -0.004935991019010544
                ],
                [
                    0.10488464683294296,
                    0.4212167263031006,
                    0.13646981120109558,
                    0.022719696164131165,
                    -0.0425800196826458
                ],
                [
                    -0.05419216305017471,
                    0.04286513477563858,
                    -0.0076493457891047,
                    0.07748784124851227,
                    9.49088716879487e-05
                ],
                [
                    -0.11602698266506195,
                    -0.04865739122033119,
                    -0.020841844379901886,
                    -0.05671372637152672,
                    -0.08724658191204071
                ]
            ],
            [
                [
                    0.1082044318318367,
                    -0.0040419320575892925,
                    0.08644421398639679,
                    -0.04265773296356201,
                    0.06432565301656723
                ],
                [
                    -0.18933075666427612,
                    -0.20697186887264252,
                    -0.12692365050315857,
                    -0.3610382378101349,
                    -0.3794855773448944
                ],
                [
                    -0.526794970035553,
                    -0.26890987157821655,
                    -0.11445975303649902,
                    -0.09950524568557739,
                    -1.0886036157608032
                ],
                [
                    -0.3449048697948456,
                    -0.23395967483520508,
                    -0.19316606223583221,
                    -0.4834900498390198,
                    -0.5899650454521179
                ],
                [
                    -0.423724889755249,
                    -0.46242284774780273,
                    -0.4935798645019531,
                    -0.1167975589632988,
                    -0.049201738089323044
                ]
            ],
            [
                [
                    0.0347919687628746,
                    0.3143827021121979,
                    0.19963788986206055,
                    0.08448361605405807,
                    -0.18303924798965454
                ],
                [
                    0.08844045549631119,
                    -0.0806688442826271,
                    -0.10727299004793167,
                    -0.3182165026664734,
                    -0.427743136882782
                ],
                [
                    -0.08236916363239288,
                    -0.06157978996634483,
                    0.22203756868839264,
                    -0.09533127397298813,
                    0.15252909064292908
                ],
                [
                    -0.1173228845000267,
                    0.4441971778869629,
                    0.39260342717170715,
                    -0.00042166278581134975,
                    0.0682033821940422
                ],
                [
                    0.05394558608531952,
                    0.1958957016468048,
                    0.0848308801651001,
                    0.040388692170381546,
                    0.17747162282466888
                ]
            ],
            [
                [
                    -0.17941397428512573,
                    0.04532897472381592,
                    0.2447921335697174,
                    0.21620529890060425,
                    0.5872461199760437
                ],
                [
                    -0.10944192856550217,
                    -0.03248407319188118,
                    -0.062023233622312546,
                    -0.009773995727300644,
                    0.5530931353569031
                ],
                [
                    -0.5128706097602844,
                    -0.5240931510925293,
                    -0.05298249423503876,
                    0.1425468623638153,
                    0.1548619419336319
                ],
                [
                    -0.5859048366546631,
                    0.22791406512260437,
                    0.5493671298027039,
                    0.2576484978199005,
                    -0.14016129076480865
                ],
                [
                    0.27799317240715027,
                    0.4544544816017151,
                    0.45140406489372253,
                    -0.16679102182388306,
                    -0.31992584466934204
                ]
            ]
        ],
        [
            [
                [
                    -0.36218979954719543,
                    0.1615806668996811,
                    -0.0429806225001812,
                    -0.003196445992216468,
                    0.20820559561252594
                ],
                [
                    0.016359427943825722,
                    0.16905415058135986,
                    0.12071855366230011,
                    -0.014909225516021252,
                    0.07765714079141617
                ],
                [
                    0.15494348108768463,
                    0.1165493056178093,
                    0.04981203004717827,
                    0.06257090717554092,
                    -0.04943550378084183
                ],
                [
                    0.23017913103103638,
                    0.3155297338962555,
                    0.02660602703690529,
                    -0.037078216671943665,
                    -0.06348150968551636
                ],
                [
                    -0.3646245002746582,
                    -0.12832124531269073,
                    0.026297016069293022,
                    -0.029750999063253403,
                    -0.07608310133218765
                ]
            ],
            [
                [
                    0.07413408160209656,
                    0.1695162057876587,
                    -0.4188891351222992,
                    -0.30817458033561707,
                    -0.2914826571941376
                ],
                [
                    -0.10577765852212906,
                    -0.09995383769273758,
                    -0.39479169249534607,
                    -0.2356608659029007,
                    -0.11487668752670288
                ],
                [
                    -0.14246711134910583,
                    0.037980664521455765,
                    -0.5074688792228699,
                    -0.21933157742023468,
                    0.015287389978766441
                ],
                [
                    -0.335134893655777,
                    -0.1190020814538002,
                    -0.4137127995491028,
                    -0.1218656376004219,
                    0.09463106095790863
                ],
                [
                    -0.08981139212846756,
                    -0.08913648873567581,
                    -0.3173527121543884,
                    -0.15930403769016266,
                    0.08122076094150543
                ]
            ],
            [
                [
                    -0.020151523873209953,
                    0.4007854759693146,
                    0.23355209827423096,
                    -0.24371430277824402,
                    -0.14086277782917023
                ],
                [
                    0.23852834105491638,
                    0.09675928950309753,
                    0.1065668910741806,
                    -0.6129433512687683,
                    -0.1523813009262085
                ],
                [
                    0.25467079877853394,
                    0.18678554892539978,
                    0.002892798278480768,
                    -0.4947830140590668,
                    -0.20764507353305817
                ],
                [
                    0.19868837296962738,
                    -0.04939607158303261,
                    0.3318188488483429,
                    -0.35823294520378113,
                    0.1107984185218811
                ],
                [
                    0.17553997039794922,
                    -0.2123493254184723,
                    0.4387514889240265,
                    0.11502015590667725,
                    0.10974431037902832
                ]
            ],
            [
                [
                    0.23488718271255493,
                    0.13012857735157013,
                    -0.1824030578136444,
                    -0.07361788302659988,
                    0.314073383808136
                ],
                [
                    0.0690513402223587,
                    -0.23031798005104065,
                    -0.06034042686223984,
                    -0.1515491008758545,
                    0.4089052677154541
                ],
                [
                    -0.10491429269313812,
                    -0.2931385040283203,
                    -0.04961899295449257,
                    -0.18844860792160034,
                    0.2628104090690613
                ],
                [
                    0.056023970246315,
                    -0.13386152684688568,
                    -0.06139789894223213,
                    0.08387426286935806,
                    0.15156865119934082
                ],
                [
                    0.1905888319015503,
                    0.10147517174482346,
                    -0.07122675329446793,
                    0.21664966642856598,
                    -0.10256308317184448
                ]
            ],
            [
                [
                    0.049457114189863205,
                    0.2853821814060211,
                    0.25288844108581543,
                    0.07982269674539566,
                    0.03301713988184929
                ],
                [
                    0.12811686098575592,
                    -0.41983848810195923,
                    -0.0683605968952179,
                    -0.07360077649354935,
                    0.09400621056556702
                ],
                [
                    0.09499840438365936,
                    0.06666143983602524,
                    0.11774718016386032,
                    0.08669332414865494,
                    0.051420073956251144
                ],
                [
                    0.12028493732213974,
                    0.10766144841909409,
                    0.26705479621887207,
                    -0.031455669552087784,
                    0.08508925139904022
                ],
                [
                    0.20427684485912323,
                    0.26323366165161133,
                    0.2639952301979065,
                    0.01006446685642004,
                    -0.05125414580106735
                ]
            ],
            [
                [
                    0.3917446434497833,
                    -0.17279165983200073,
                    -0.13529722392559052,
                    -0.04173821955919266,
                    -0.2193450629711151
                ],
                [
                    -0.1913718283176422,
                    -0.034052152186632156,
                    -0.07186563313007355,
                    -0.2014251947402954,
                    -0.14252780377864838
                ],
                [
                    -0.7021765112876892,
                    -0.14941485226154327,
                    0.02958611771464348,
                    -0.22336271405220032,
                    -0.06990762054920197
                ],
                [
                    -0.8945100903511047,
                    -0.4264049232006073,
                    -0.2953130304813385,
                    0.07477819919586182,
                    0.003282640827819705
                ],
                [
                    -0.43648475408554077,
                    -0.29574331641197205,
                    -0.08483102172613144,
                    0.08476385474205017,
                    0.10282491147518158
                ]
            ],
            [
                [
                    0.34007728099823,
                    0.5173277258872986,
                    0.08260344713926315,
                    0.07001494616270065,
                    0.13446035981178284
                ],
                [
                    0.07536428421735764,
                    0.020474862307310104,
                    0.0012231022119522095,
                    0.1733061522245407,
                    0.07507140934467316
                ],
                [
                    0.1495451033115387,
                    0.2014721930027008,
                    -0.10496692359447479,
                    0.0956709235906601,
                    0.386502742767334
                ],
                [
                    0.3290095627307892,
                    0.3814074695110321,
                    0.02864854782819748,
                    0.07045187056064606,
                    -0.02664955146610737
                ],
                [
                    0.29319673776626587,
                    0.4683661460876465,
                    -0.18613126873970032,
                    -0.10131079703569412,
                    -0.010297182947397232
                ]
            ],
            [
                [
                    -0.23749671876430511,
                    -0.028068406507372856,
                    0.14833709597587585,
                    -0.3740796148777008,
                    0.11082900315523148
                ],
                [
                    -0.10963873565196991,
                    -0.24316658079624176,
                    0.04713540896773338,
                    -0.004448790103197098,
                    -0.043742597103118896
                ],
                [
                    0.035175666213035583,
                    0.13315905630588531,
                    0.10363544523715973,
                    -0.030740203335881233,
                    -0.1909003108739853
                ],
                [
                    0.10888166725635529,
                    0.08993304520845413,
                    0.09434720128774643,
                    0.02470282092690468,
                    -0.20238547027111053
                ],
                [
                    0.010500723496079445,
                    0.3014470934867859,
                    -0.17368446290493011,
                    -0.3402232229709625,
                    -0.07223295420408249
                ]
            ],
            [
                [
                    -0.23236404359340668,
                    0.020333368331193924,
                    -0.10691531002521515,
                    -0.3155430853366852,
                    0.13272689282894135
                ],
                [
                    -0.27154842019081116,
                    0.0625888928771019,
                    -0.07265171408653259,
                    -0.2977111339569092,
                    0.16412615776062012
                ],
                [
                    -0.17690464854240417,
                    -0.16867105662822723,
                    -0.3274582326412201,
                    -0.2974794805049896,
                    0.07869068533182144
                ],
                [
                    -0.019404910504817963,
                    -0.16621017456054688,
                    0.033805038779973984,
                    -0.25155264139175415,
                    -0.08075392991304398
                ],
                [
                    -0.21523521840572357,
                    0.12605957686901093,
                    -0.10720135271549225,
                    -0.0003014841640833765,
                    -0.08850527554750443
                ]
            ],
            [
                [
                    -0.443300724029541,
                    0.1202559694647789,
                    0.07531924545764923,
                    -0.10814620554447174,
                    0.024995364248752594
                ],
                [
                    -0.2668866813182831,
                    0.28073400259017944,
                    0.26702603697776794,
                    -0.11874797940254211,
                    -0.497233510017395
                ],
                [
                    -0.483458548784256,
                    -0.2032165229320526,
                    0.016772795468568802,
                    -0.3220464587211609,
                    -0.2693030536174774
                ],
                [
                    -0.43070363998413086,
                    -0.46526479721069336,
                    0.0578777976334095,
                    -0.3379656672477722,
                    -0.21443723142147064
                ],
                [
                    -0.7068108320236206,
                    -0.3709680140018463,
                    -0.2799341678619385,
                    -0.10670313984155655,
                    0.017409058287739754
                ]
            ]
        ],
        [
            [
                [
                    -0.04054489731788635,
                    -0.0034502085763961077,
                    0.00021526133059524,
                    2.7547284844331443e-05,
                    -0.0005107259494252503
                ],
                [
                    0.006046695169061422,
                    -0.030740730464458466,
                    -0.01475511584430933,
                    -0.00030238102772273123,
                    -0.01957034133374691
                ],
                [
                    0.0001918896014103666,
                    -0.007523289415985346,
                    -0.020130498334765434,
                    -0.015599915757775307,
                    0.005478748586028814
                ],
                [
                    -0.008091640658676624,
                    -0.0005970718339085579,
                    -0.00036724054371006787,
                    -0.00951574556529522,
                    -0.019554870203137398
                ],
                [
                    -0.03517143428325653,
                    -0.008876749314367771,
                    0.00027220023912377656,
                    -0.004120718687772751,
                    -0.002671030815690756
                ]
            ],
            [
                [
                    -0.05318450182676315,
                    -0.04910600930452347,
                    -0.028920628130435944,
                    -0.022716496139764786,
                    -0.027380838990211487
                ],
                [
                    -0.002460410352796316,
                    -0.019675102084875107,
                    0.014832897111773491,
                    -0.027519477531313896,
                    -0.03315669670701027
                ],
                [
                    0.001117493724450469,
                    -0.009830768220126629,
                    -0.01518554799258709,
                    -0.01799827627837658,
                    -0.019923079758882523
                ],
                [
                    -0.023509327322244644,
                    -0.03585685044527054,
                    -0.004324368666857481,
                    -0.011789577081799507,
                    -0.016050877049565315
                ],
                [
                    -0.028214000165462494,
                    -0.0360049232840538,
                    -0.03875599801540375,
                    -0.04777199402451515,
                    -0.0463818795979023
                ]
            ],
            [
                [
                    -0.0003994075523223728,
                    -0.024821488186717033,
                    -0.04182741418480873,
                    -0.027050580829381943,
                    -0.015875546261668205
                ],
                [
                    -0.0009627785766497254,
                    -0.02226567454636097,
                    -0.021203918382525444,
                    -0.04111763834953308,
                    -0.03205537050962448
                ],
                [
                    -0.0022825836203992367,
                    -0.012403544038534164,
                    -0.010267430916428566,
                    -0.015653986483812332,
                    -0.004610138479620218
                ],
                [
                    -0.007581715006381273,
                    0.013923676684498787,
                    -0.005949744489043951,
                    -0.00019242061534896493,
                    -0.028541114181280136
                ],
                [
                    -0.0007962951203808188,
                    0.0011309180408716202,
                    -0.0015863933367654681,
                    0.00601166021078825,
                    0.02402830496430397
                ]
            ],
            [
                [
                    -0.00033095767139457166,
                    -0.0028522580396384,
                    0.00024536397540941834,
                    8.149570203386247e-05,
                    0.0006970507092773914
                ],
                [
                    -0.02846372127532959,
                    -0.03173185512423515,
                    -0.0008933449862524867,
                    -3.264969927840866e-05,
                    -0.00034255991340614855
                ],
                [
                    -0.028367407619953156,
                    -0.013970531523227692,
                    -0.032809242606163025,
                    -0.0026916866190731525,
                    -0.03139185532927513
                ],
                [
                    -0.0064016650430858135,
                    -0.025169050320982933,
                    0.0013643514830619097,
                    -0.028369110077619553,
                    -0.00022369026555679739
                ],
                [
                    -0.006709922570735216,
                    -0.011793769896030426,
                    0.0004985228879377246,
                    -0.012710368260741234,
                    -0.011817289516329765
                ]
            ],
            [
                [
                    -0.0005387775599956512,
                    -0.010983608663082123,
                    -0.02052188292145729,
                    -0.04106777906417847,
                    -0.029398074373602867
                ],
                [
                    0.0007276127580553293,
                    -3.440237196628004e-05,
                    -0.004297408740967512,
                    -9.856211545411497e-05,
                    -0.012300260365009308
                ],
                [
                    -8.555098611395806e-05,
                    -0.004826253280043602,
                    -0.016201501712203026,
                    -0.021836161613464355,
                    0.005584445782005787
                ],
                [
                    0.00034353905357420444,
                    0.0004879150656051934,
                    -0.00902956910431385,
                    -0.006677616387605667,
                    -3.488701258902438e-05
                ],
                [
                    0.0007294938550330698,
                    -2.896205842262134e-06,
                    0.0014486319851130247,
                    -0.011217134073376656,
                    -0.017582083120942116
                ]
            ],
            [
                [
                    -0.024571727961301804,
                    -0.04396498203277588,
                    4.635618824977428e-05,
                    -0.018098091706633568,
                    0.0013505301903933287
                ],
                [
                    -0.021231776103377342,
                    -0.04332425817847252,
                    0.0017249865923076868,
                    0.000830811623018235,
                    -0.0014211544767022133
                ],
                [
                    -0.029750881716609,
                    -0.02298017591238022,
                    -0.012402690947055817,
                    -0.006765930447727442,
                    -0.021661920472979546
                ],
                [
                    0.0049736457876861095,
                    -0.0006193650770001113,
                    -0.019613143056631088,
                    -0.030515387654304504,
                    -0.023793471977114677
                ],
                [
                    0.0004437303578015417,
                    -0.0212545245885849,
                    0.01280047744512558,
                    0.02328871376812458,
                    -0.009480137377977371
                ]
            ],
            [
                [
                    -0.0005262226331979036,
                    -0.0002123541635228321,
                    0.0003354985383339226,
                    0.000493975356221199,
                    1.0743318853201345e-05
                ],
                [
                    -0.0004658978432416916,
                    9.886414773063734e-05,
                    -0.0005791810690425336,
                    1.5631760106771253e-05,
                    5.7678345910971984e-05
                ],
                [
                    -0.013489915058016777,
                    -0.0005594711983576417,
                    -0.00026564981089904904,
                    -0.0007363982149399817,
                    -0.0005752355209551752
                ],
                [
                    0.011591552756726742,
                    -0.01564689166843891,
                    0.00018263253150507808,
                    -0.0011104592122137547,
                    0.00018861914577428252
                ],
                [
                    -2.9275477572809905e-05,
                    0.0016259142430499196,
                    5.154518294148147e-05,
                    -0.003809856716543436,
                    -0.012098598293960094
                ]
            ],
            [
                [
                    -0.04020906612277031,
                    -0.03635310009121895,
                    -0.03558887913823128,
                    -0.030748842284083366,
                    -0.03345579653978348
                ],
                [
                    -0.012287041172385216,
                    -0.05684586986899376,
                    -0.03205377608537674,
                    -0.03380986303091049,
                    -0.029153097420930862
                ],
                [
                    -0.0236887838691473,
                    -0.006927461363375187,
                    -0.01990356296300888,
                    -0.023579521104693413,
                    -0.0076818582601845264
                ],
                [
                    -0.024894872680306435,
                    -0.0378628633916378,
                    -0.00979140866547823,
                    -0.023272065445780754,
                    -0.031657084822654724
                ],
                [
                    -0.015547801740467548,
                    -0.035767655819654465,
                    -0.04155506566166878,
                    -0.05181382596492767,
                    -0.0454157255589962
                ]
            ],
            [
                [
                    -0.03008868917822838,
                    -0.04901977255940437,
                    -0.014365004375576973,
                    -0.015648867934942245,
                    -0.03119606524705887
                ],
                [
                    -0.0607418529689312,
                    -0.02165399305522442,
                    -0.02905365265905857,
                    -0.01694745197892189,
                    0.004448013845831156
                ],
                [
                    -0.0325796864926815,
                    -0.03836916759610176,
                    -0.030958708375692368,
                    -0.0007401827606372535,
                    -0.01055641658604145
                ],
                [
                    -0.00037664108094759285,
                    -0.025833293795585632,
                    -0.043132029473781586,
                    -0.05333646759390831,
                    -0.043687671422958374
                ],
                [
                    -0.04261375591158867,
                    0.009314760565757751,
                    -0.004583102650940418,
                    -0.01912904903292656,
                    -0.024596448987722397
                ]
            ],
            [
                [
                    -0.04925578460097313,
                    -0.03923412784934044,
                    -0.015943193808197975,
                    0.0017941645346581936,
                    -0.00019786038319580257
                ],
                [
                    -0.02957397885620594,
                    -0.03205569088459015,
                    -0.023414837196469307,
                    -0.03546252101659775,
                    -0.011288718320429325
                ],
                [
                    -0.005111674312502146,
                    -0.04217204824090004,
                    -0.03575709089636803,
                    -0.03195178881287575,
                    -0.00010434565774630755
                ],
                [
                    -0.02076582983136177,
                    -0.016964921727776527,
                    -0.012086817994713783,
                    -0.03324654698371887,
                    -0.026953399181365967
                ],
                [
                    -0.02440035715699196,
                    -0.03163756802678108,
                    0.0034154164604842663,
                    0.00860850140452385,
                    -0.04050034284591675
                ]
            ]
        ],
        [
            [
                [
                    -0.05745263397693634,
                    -0.08358124643564224,
                    -0.013503306545317173,
                    0.24591095745563507,
                    0.21724288165569305
                ],
                [
                    0.27377402782440186,
                    -0.14501848816871643,
                    -0.16452747583389282,
                    0.08662700653076172,
                    0.1761660873889923
                ],
                [
                    0.2885001599788666,
                    -0.20580938458442688,
                    -0.40113407373428345,
                    0.1339496523141861,
                    0.0564582496881485
                ],
                [
                    -0.141297847032547,
                    -0.0007386512006632984,
                    -0.1624213606119156,
                    -0.15592674911022186,
                    0.16032786667346954
                ],
                [
                    -0.044805534183979034,
                    0.004003612790256739,
                    -0.6049352884292603,
                    -0.017548374831676483,
                    0.39189741015434265
                ]
            ],
            [
                [
                    0.0651475340127945,
                    -0.36516299843788147,
                    -0.5516111850738525,
                    -0.5418200492858887,
                    -0.3147311508655548
                ],
                [
                    0.06072201579809189,
                    -0.3049335777759552,
                    -0.6773401498794556,
                    -0.046146269887685776,
                    0.06794805824756622
                ],
                [
                    -0.09851272404193878,
                    -0.43633031845092773,
                    -0.06844592094421387,
                    0.05548359453678131,
                    0.1837160438299179
                ],
                [
                    -0.21866673231124878,
                    -0.5845279097557068,
                    0.13065411150455475,
                    0.17478196322917938,
                    -0.2941659986972809
                ],
                [
                    -0.25679251551628113,
                    -0.5782743692398071,
                    -0.17586787045001984,
                    -0.2121807485818863,
                    -0.18023215234279633
                ]
            ],
            [
                [
                    0.26613256335258484,
                    0.012839864939451218,
                    0.022118350490927696,
                    -0.3003777861595154,
                    0.0731031522154808
                ],
                [
                    0.054528407752513885,
                    0.2655743956565857,
                    -0.0027257269248366356,
                    -0.28581249713897705,
                    0.14309051632881165
                ],
                [
                    0.08245708793401718,
                    0.35218098759651184,
                    -0.07925429195165634,
                    -0.06324466317892075,
                    0.07134173065423965
                ],
                [
                    0.1059052124619484,
                    0.27726057171821594,
                    -0.13827496767044067,
                    0.03208062797784805,
                    0.19642490148544312
                ],
                [
                    0.06349708139896393,
                    -0.14177867770195007,
                    -0.0683465525507927,
                    -0.054656438529491425,
                    0.14911030232906342
                ]
            ],
            [
                [
                    -0.23134657740592957,
                    -0.1562376320362091,
                    0.038475487381219864,
                    -0.199782133102417,
                    -0.07690451294183731
                ],
                [
                    -0.3095918297767639,
                    -0.33561021089553833,
                    -0.11752685904502869,
                    0.04414529725909233,
                    0.06015520170331001
                ],
                [
                    0.2675095796585083,
                    -0.6842485666275024,
                    0.12438304722309113,
                    0.29843685030937195,
                    0.060205280780792236
                ],
                [
                    0.4734249413013458,
                    -0.27464592456817627,
                    0.06467059999704361,
                    0.16390879452228546,
                    0.09811515361070633
                ],
                [
                    -0.37311846017837524,
                    -0.40246090292930603,
                    0.0003749687457457185,
                    0.10197985172271729,
                    0.23656953871250153
                ]
            ],
            [
                [
                    -0.14348424971103668,
                    -0.12836064398288727,
                    -0.08569144457578659,
                    -0.08355653285980225,
                    0.11436143517494202
                ],
                [
                    0.5362837910652161,
                    0.20067933201789856,
                    0.32041314244270325,
                    0.0026187128387391567,
                    0.03150319308042526
                ],
                [
                    0.499663770198822,
                    0.29947587847709656,
                    0.16622020304203033,
                    0.010278052650392056,
                    -0.03034752793610096
                ],
                [
                    0.8702666163444519,
                    0.21201473474502563,
                    -0.18067210912704468,
                    0.08242528140544891,
                    0.42153170704841614
                ],
                [
                    -0.02628267928957939,
                    -0.6189523935317993,
                    -0.2618772089481354,
                    -0.03576469048857689,
                    -0.021763108670711517
                ]
            ],
            [
                [
                    -0.07783393561840057,
                    -0.19278576970100403,
                    -0.33345097303390503,
                    -0.3522380590438843,
                    -0.1912573277950287
                ],
                [
                    -0.03545215725898743,
                    -0.4653867185115814,
                    -0.2777576446533203,
                    0.010153232142329216,
                    0.4246926009654999
                ],
                [
                    0.11453746259212494,
                    -0.5382500290870667,
                    -0.19058917462825775,
                    0.3695255517959595,
                    0.38346928358078003
                ],
                [
                    -0.008735624141991138,
                    -0.3052310347557068,
                    -0.08364012837409973,
                    -0.2113964557647705,
                    -0.279889315366745
                ],
                [
                    -0.031814802438020706,
                    -0.15828941762447357,
                    -0.1231045126914978,
                    -0.26544687151908875,
                    -0.09689254313707352
                ]
            ],
            [
                [
                    -0.0018878281116485596,
                    -0.043763961642980576,
                    0.013932586647570133,
                    0.1982906609773636,
                    -0.13491398096084595
                ],
                [
                    0.525756299495697,
                    0.29963037371635437,
                    -0.0680617243051529,
                    0.3347003161907196,
                    0.22804999351501465
                ],
                [
                    0.5218421816825867,
                    0.2057560831308365,
                    -0.0228209737688303,
                    0.16078980267047882,
                    0.4053264856338501
                ],
                [
                    0.045307986438274384,
                    0.03790019825100899,
                    0.07324995845556259,
                    0.294960618019104,
                    0.4691912829875946
                ],
                [
                    0.23240429162979126,
                    0.09641000628471375,
                    -0.1693827509880066,
                    0.04309333488345146,
                    0.21935302019119263
                ]
            ],
            [
                [
                    0.11138970404863358,
                    -0.11155135184526443,
                    -0.2182624489068985,
                    0.2562423050403595,
                    -0.05062755197286606
                ],
                [
                    0.040672559291124344,
                    -0.36855968832969666,
                    -0.12684756517410278,
                    0.02430933341383934,
                    -0.16176916658878326
                ],
                [
                    -0.23428471386432648,
                    -0.28509142994880676,
                    -0.23178628087043762,
                    0.12118415534496307,
                    -0.17132766544818878
                ],
                [
                    -0.5898091197013855,
                    -0.10087376832962036,
                    -0.0207404512912035,
                    0.145308718085289,
                    -0.10475397109985352
                ],
                [
                    -0.24217841029167175,
                    -0.4669649004936218,
                    -0.053465817123651505,
                    0.3001224398612976,
                    0.13776300847530365
                ]
            ],
            [
                [
                    -0.29566532373428345,
                    -0.24142327904701233,
                    -0.01107589527964592,
                    -0.14547137916088104,
                    -0.0727461650967598
                ],
                [
                    0.18924665451049805,
                    -0.011104274541139603,
                    0.0705224871635437,
                    -0.10020751506090164,
                    -0.3035930395126343
                ],
                [
                    0.715499758720398,
                    -0.028508944436907768,
                    -0.27063804864883423,
                    -0.30008435249328613,
                    -0.34023961424827576
                ],
                [
                    0.089743472635746,
                    -0.1340622454881668,
                    -0.4779033660888672,
                    -0.3215600848197937,
                    -0.05013564974069595
                ],
                [
                    -0.23421180248260498,
                    0.037068650126457214,
                    -0.05908166617155075,
                    -0.3669023811817169,
                    -0.1626102477312088
                ]
            ],
            [
                [
                    -0.10131466388702393,
                    -0.1058163195848465,
                    -0.11719837039709091,
                    -0.18739023804664612,
                    -0.49553877115249634
                ],
                [
                    0.05161147192120552,
                    -0.043201226741075516,
                    -0.2263474315404892,
                    -0.39028218388557434,
                    -0.24288073182106018
                ],
                [
                    0.017261411994695663,
                    -0.2108287513256073,
                    -0.31479865312576294,
                    -0.16012540459632874,
                    -0.2909296154975891
                ],
                [
                    0.26130205392837524,
                    -0.17668215930461884,
                    -0.4726007878780365,
                    -0.4170619547367096,
